<?xml version="1.0"?>
<opencv_storage>
<my_svm type_id="opencv-ml-svm">
  <svm_type>C_SVC</svm_type>
  <kernel><type>LINEAR</type></kernel>
  <C>10.</C>
  <term_criteria><epsilon>1.1920928955078125e-007</epsilon>
    <iterations>2147483647</iterations></term_criteria>
  <var_all>3600</var_all>
  <var_count>3600</var_count>
  <class_count>2</class_count>
  <class_labels type_id="opencv-matrix">
    <rows>1</rows>
    <cols>2</cols>
    <dt>i</dt>
    <data>
      0 1</data></class_labels>
  <sv_total>1</sv_total>
  <support_vectors>
    <_>
      3.56298648e-002 1.06004663e-002 1.94679480e-002 1.67924557e-002
      4.30436283e-002 2.86147110e-002 1.83302583e-003 3.15163024e-002
      3.14428918e-002 6.10300265e-002 2.19746847e-002 1.39495218e-002
      1.35373548e-002 2.57590320e-002 2.18794886e-002 9.33403149e-003
      1.45826619e-002 4.71752211e-002 4.71626706e-002 2.16396935e-002
      1.26714613e-002 2.82184966e-003 -2.16521742e-003 1.28838280e-002
      1.10313315e-002 1.44341858e-002 3.64769511e-002 7.40925455e-003
      5.42170089e-003 5.73235331e-003 3.85781284e-003 4.40194178e-003
      4.18713130e-003 5.28684026e-003 6.38481602e-003 7.56422011e-003
      3.32340002e-002 2.52143219e-002 -1.22835431e-002 1.00378506e-001
      6.13648705e-002 6.74322769e-002 2.92852391e-002 3.08159972e-004
      2.13728640e-002 5.36942892e-002 2.79335342e-002 2.19418947e-002
      7.64003349e-003 -4.99614589e-002 4.63467017e-002 2.71244142e-002
      3.08040679e-002 5.06530628e-002 -9.06136557e-002 7.02258199e-004
      8.89527705e-003 -6.01092167e-003 -5.54025881e-002 1.38317486e-002
      -1.18921176e-002 -2.22303439e-002 -8.56401324e-002
      -6.31950647e-002 -3.37444842e-002 -2.79429071e-002
      -7.51459002e-002 -1.85423806e-001 -4.66851406e-002
      -2.11111456e-002 -1.11062825e-002 -3.34483609e-002
      -2.06046775e-002 5.27974917e-003 4.36673015e-002 2.73908190e-002
      -2.55093090e-002 2.19304133e-002 6.39441609e-002 1.28080426e-002
      2.15016655e-003 1.00933686e-001 4.71308827e-002 3.08515169e-002
      1.21780066e-003 -2.54978061e-001 7.18334466e-002 1.38667878e-002
      9.45396256e-003 4.78545390e-002 -7.79870972e-002 -8.94249305e-002
      -3.03793680e-002 -4.98864353e-002 -1.05258465e-001 1.83453336e-002
      -4.36525308e-002 5.35335876e-002 -8.38872865e-002 -1.07384115e-001
      -1.38320476e-002 3.70663765e-004 -3.81442718e-002 -2.77200826e-002
      -4.94890213e-002 -2.21436210e-002 6.11394271e-003 -7.10405186e-002
      -7.74822012e-002 -1.54701341e-002 4.80066705e-003 -1.18154688e-002
      3.43064927e-002 2.42112838e-002 -1.53011568e-002 9.64530453e-004
      -5.22387959e-002 4.05397359e-003 1.57301147e-002 2.85728350e-002
      3.92918065e-002 -8.86706114e-002 5.87109253e-002 2.52755322e-002
      3.59596014e-002 6.54444518e-003 -1.54819181e-002 5.34553528e-002
      7.62523189e-002 4.50190902e-002 -6.18054881e-004 1.08141392e-001
      8.54293033e-002 6.68539703e-002 -1.09194210e-002 -1.55387362e-002
      2.85303667e-002 2.24989988e-002 6.83037518e-003 5.64975031e-002
      1.58757083e-002 1.51748462e-002 1.35926399e-002 -5.38214557e-002
      4.24217023e-002 1.45291118e-002 8.09528958e-003 7.84976408e-003
      1.38945812e-002 1.00264708e-002 5.94912982e-003 8.31044093e-003
      2.89680362e-002 6.79457411e-002 3.36536840e-002 2.29124986e-002
      1.10488189e-002 1.31481458e-002 1.81581769e-002 2.04822887e-002
      2.47192327e-002 5.67173027e-002 4.14367355e-002 2.51904242e-002
      2.19913535e-002 1.62316933e-002 2.09908057e-002 1.53026758e-002
      2.16032527e-002 3.10190897e-002 3.50775905e-002 1.87250264e-002
      1.16725396e-002 9.76590440e-003 9.05070454e-003 9.02322028e-003
      7.58595346e-003 8.12107604e-003 1.37034990e-002 1.76854841e-002
      4.40271944e-002 1.94402169e-002 1.48809869e-002 3.73709062e-003
      -9.49848443e-003 2.12230068e-002 1.68189071e-002 2.11379081e-002
      4.35261689e-002 -4.21509668e-002 2.67904494e-002 3.63783687e-002
      1.58405025e-002 -4.90077846e-002 3.06667686e-002 2.01977026e-002
      1.60312094e-002 -2.15343758e-002 -8.12601745e-002 -3.98428477e-002
      -1.90106630e-002 -1.14942551e-001 -7.42468610e-002
      -8.74887481e-002 -2.85801254e-002 1.01368758e-003 -5.58693446e-002
      1.76969059e-002 8.10001511e-003 1.68185774e-002 -2.90627647e-002
      -1.02543369e-001 -2.40403656e-002 6.60159066e-003 3.56885581e-003
      1.18461857e-002 2.76088193e-002 2.23556105e-002 1.75281875e-002
      -2.19451220e-004 -9.67462212e-002 3.53572294e-002 1.26772998e-002
      7.94099458e-003 2.62950873e-003 -1.43050635e-003 -1.83586385e-002
      3.71913761e-002 9.26879980e-003 -7.20383674e-002 7.26297349e-002
      2.13729125e-002 1.28022850e-001 1.19458989e-003 -1.69016957e-001
      -9.46734753e-003 7.56833004e-003 -4.34006341e-002 5.86110391e-002
      -9.77516174e-002 -4.05051783e-002 -1.21176112e-002
      -9.29636434e-002 -2.95822583e-002 -5.85092790e-003
      -2.12839134e-002 -5.27105592e-002 -1.46525145e-001
      -4.82712649e-002 -2.49304026e-002 -2.03285124e-002
      -8.00719485e-003 1.86615139e-002 1.71683393e-002 2.56816149e-002
      2.33079195e-002 -5.54485526e-003 3.28330435e-002 2.26995926e-002
      2.43634731e-002 1.51404105e-002 3.16025093e-002 6.57310337e-002
      8.03215355e-002 1.21458862e-002 6.07266985e-002 1.04081079e-001
      8.44222382e-002 6.73845783e-002 2.46829931e-002 -8.05479363e-002
      7.70476460e-002 5.65087311e-002 2.93842182e-002 1.60163790e-001
      5.50950356e-002 4.71740216e-002 5.15142679e-002 -1.26053780e-001
      -8.11496228e-002 2.41483077e-002 1.12844007e-002 1.67410430e-002
      1.64444298e-002 1.96729936e-002 9.11189709e-003 1.23400092e-002
      -6.31061494e-002 2.26767920e-002 1.08264852e-002 8.62354506e-003
      4.33483906e-003 5.15107112e-003 6.58587134e-003 7.74136651e-003
      8.43529031e-003 1.68253295e-002 2.65216902e-002 1.98088102e-002
      1.86568890e-002 1.56427361e-002 1.85060222e-002 1.35199623e-002
      1.64417792e-002 2.49084923e-002 2.99816504e-002 3.32460068e-002
      2.51095854e-002 2.25825477e-002 2.50619650e-002 2.57061124e-002
      1.93597768e-002 1.74239650e-002 2.59755831e-002 2.80428398e-002
      3.46420556e-002 1.48697179e-002 1.48944352e-002 2.05491632e-002
      2.67989822e-002 1.42211411e-002 1.23523511e-002 1.25698186e-002
      2.76675764e-002 -9.57629923e-003 4.39194683e-003 8.36152118e-003
      -1.61733758e-003 -3.74146551e-002 6.15784014e-003 6.31331466e-003
      4.52692481e-003 -1.06464438e-002 -9.07034725e-002 -3.66765037e-002
      -1.03110317e-002 -8.33908841e-002 -1.65422022e-001
      -8.10634941e-002 -3.36981155e-002 -9.96533781e-003
      -7.57126585e-002 -8.24578106e-003 3.08631938e-002 4.26049158e-002
      -3.87694761e-002 -1.77441180e-001 -2.24900749e-002 2.66953986e-002
      2.02516336e-002 -9.36559774e-003 9.72434133e-002 4.79395539e-002
      4.26058620e-002 4.18512523e-002 -2.43048021e-003 3.14042680e-002
      4.09317762e-002 5.15406504e-002 8.07569847e-002 -1.07952319e-002
      2.99109588e-003 2.15609223e-002 1.29695721e-002 6.31816462e-002
      2.60746218e-002 1.29706180e-002 5.66947609e-002 -2.72209942e-002
      -1.46989092e-001 -1.68863460e-002 -7.94494059e-003
      -3.23112123e-002 4.10193428e-002 -9.12436694e-002 -4.72781174e-002
      -3.24796550e-002 -8.07182640e-002 2.40930263e-002 -1.60414819e-002
      -5.78242056e-002 -1.06782027e-001 -2.74840415e-001
      -8.18367675e-002 -4.40141670e-002 -3.18659618e-002 5.43805957e-002
      2.11136527e-002 -8.44074599e-003 -1.68518629e-002 -2.58323811e-002
      -5.06464690e-002 -8.95975996e-003 -5.14035579e-003
      -1.79998507e-003 2.58282572e-003 1.21413218e-002 2.61448026e-002
      3.04645672e-002 6.31194422e-003 1.87618483e-003 3.90225165e-002
      2.83631049e-002 2.15812381e-002 2.77639739e-003 -7.78119117e-002
      6.45563006e-002 4.90142368e-002 4.87026423e-002 1.70307323e-001
      6.31626546e-002 4.30667996e-002 4.61473577e-002 -1.03788450e-001
      -6.96502551e-002 4.32236902e-002 1.90208796e-002 4.64573354e-002
      6.73265085e-002 5.02861254e-002 1.67842545e-002 1.92074403e-002
      -6.86381236e-002 -7.44448751e-002 1.13250287e-002 1.33633837e-002
      1.67591348e-002 2.55093351e-002 2.94559859e-002 1.59948263e-002
      1.44079104e-002 -7.65395984e-002 8.44441820e-003 5.93161862e-003
      6.43103570e-003 6.22682320e-003 6.61732256e-003 4.88660904e-003
      4.59789205e-003 7.76250428e-003 8.91405623e-003 1.87721979e-002
      2.06950232e-002 1.98769681e-002 2.30871309e-002 1.98310707e-002
      1.67485308e-002 1.37494616e-002 1.79567933e-002 1.05228517e-002
      4.26187739e-002 2.04359312e-002 2.07756683e-002 2.72241291e-002
      3.18106823e-002 2.19323244e-002 1.94873251e-002 1.87687743e-002
      2.78028119e-002 2.16563679e-002 8.89639277e-003 6.09867368e-003
      6.31269626e-003 1.64857097e-002 1.43199600e-002 9.66975093e-003
      9.57649201e-003 1.79009996e-002 -3.41959596e-002 -2.02985741e-002
      -6.81060553e-003 -3.84202525e-002 -9.74560827e-002
      -4.05793712e-002 -2.13202499e-002 -1.37243783e-002
      -1.20154601e-002 -2.81201601e-002 2.25285478e-002 3.10997050e-002
      -4.76024859e-002 -1.99936971e-001 -2.70556994e-002 2.11285930e-002
      1.44859329e-002 -2.59655043e-002 7.67023675e-003 7.29213730e-002
      6.30231649e-002 2.45532636e-002 -9.21295509e-002 2.42713876e-002
      6.27833605e-002 8.10758695e-002 -2.25411411e-002 6.44865185e-002
      3.50020416e-002 2.30890475e-002 5.70522668e-003 -1.08375410e-002
      2.83969883e-002 1.98910069e-002 2.34662071e-002 7.01738074e-002
      -1.00948587e-001 -1.84231047e-002 -1.59520078e-002
      -2.73027346e-002 4.01808061e-002 -5.12894467e-002 -3.26714218e-002
      -3.32545601e-002 -6.86089173e-002 1.56991556e-002 -4.02451269e-002
      -8.28344598e-002 -1.21425100e-001 -2.91586787e-001
      -8.46407935e-002 -5.53875901e-002 -4.19269912e-002 3.97797413e-002
      1.86188612e-002 -5.71105257e-002 -4.98450436e-002 -8.95025283e-002
      -1.62448242e-001 -4.46851775e-002 -3.32016796e-002
      -4.78226952e-002 3.27974297e-002 1.94455236e-002 -5.01785092e-002
      -3.06844488e-002 -3.47299725e-002 -3.07571162e-002
      -6.98922528e-003 -1.45068793e-002 -2.87873689e-002 3.71195525e-002
      -3.94923091e-002 2.21750047e-002 1.55984759e-002 2.00315937e-002
      6.34847879e-002 2.25239191e-002 1.30398460e-002 1.37636382e-002
      -7.21369386e-002 -1.18027233e-001 3.07976417e-002 8.76639504e-003
      4.22007218e-002 6.45483658e-002 4.41004634e-002 9.09370836e-003
      9.26492177e-003 -1.16932541e-001 -1.13078617e-001 6.59242412e-003
      1.85093619e-002 1.05845267e-002 1.26136877e-002 5.10668643e-002
      2.14675386e-002 1.28742075e-002 -1.08435564e-001 -4.61519882e-002
      -8.01351294e-003 -2.57923501e-003 -1.03115831e-002
      -2.22302023e-002 4.89060348e-003 -1.27462298e-002 -1.25230951e-002
      -6.31133690e-002 7.84073398e-003 8.26857518e-003 8.21047463e-003
      9.42175835e-003 5.51433442e-003 7.02259457e-003 5.83548564e-003
      6.26307121e-003 3.24104959e-003 2.06983685e-002 1.41250109e-002
      1.46618178e-002 1.71593502e-002 1.22033888e-002 1.82112791e-002
      1.61855984e-002 1.44876102e-002 7.30228145e-003 3.98139693e-002
      1.82111450e-002 1.57787800e-002 2.33863499e-002 5.22312783e-002
      3.49809155e-002 2.01194603e-002 1.84924006e-002 3.18902247e-002
      1.89284906e-002 5.84142143e-003 9.57606733e-003 3.15259956e-002
      6.67317808e-002 2.14605555e-002 5.80799393e-003 5.92936482e-003
      1.74912680e-002 1.94656383e-002 1.19412346e-002 1.25497868e-002
      -1.92137677e-002 -8.79848152e-002 -8.63985438e-003 1.25912568e-002
      1.28113357e-002 -5.35687315e-004 5.69396513e-003 5.32175861e-002
      4.57417034e-002 -1.87151060e-002 -1.34319961e-001 -8.05020914e-004
      4.78082560e-002 5.76923080e-002 -2.66173575e-002 -1.23880506e-002
      6.80147186e-002 3.22619304e-002 1.29512139e-002 -1.07059460e-002
      5.31439930e-002 3.01056728e-002 3.97096239e-002 -4.67891432e-002
      4.12129238e-002 3.42200883e-002 1.58361886e-002 6.57839626e-002
      1.03907347e-001 5.03290780e-002 1.79352835e-002 3.53845060e-002
      3.66269524e-004 2.69255210e-002 -1.31952912e-002 -3.35060880e-002
      -4.90651131e-002 -1.29007727e-001 -2.81140972e-002
      -1.65930968e-002 -6.78715156e-003 2.08455995e-002 9.26906615e-003
      -6.87625855e-002 -4.46781665e-002 -1.07310012e-001
      -1.88071221e-001 -5.66199496e-002 -3.61735076e-002
      -6.06917143e-002 1.85498875e-002 5.80176413e-002 -1.34381428e-001
      -1.14628971e-001 -1.24359012e-001 -2.04057902e-001
      -4.29498740e-002 -4.80357185e-002 -5.98583557e-002 1.22268841e-001
      -5.75290695e-002 -8.92887861e-002 -9.72879156e-002
      -4.32312563e-002 -8.02363176e-003 -7.26350630e-003
      -4.67314273e-002 -2.84393933e-002 -3.69730331e-002
      -5.23595735e-002 1.36655066e-002 3.22456495e-003 1.62573289e-002
      9.22869332e-003 1.64447445e-002 4.74455114e-003 5.82937757e-003
      -2.91445293e-002 -9.33754593e-002 -1.13858667e-003 8.94702412e-003
      -2.37313304e-002 -3.11006792e-002 2.95831226e-002 7.72180315e-003
      6.12434465e-003 -9.27171484e-002 -9.88269374e-002 -2.96796169e-002
      -2.74672173e-002 -2.76463181e-002 -8.08469132e-002 6.78804750e-003
      -3.60924341e-002 -1.66362096e-002 -7.57657364e-002
      -1.36087835e-001 -1.07878089e-001 -1.26145422e-001
      -4.79179733e-002 -1.43036053e-001 -1.27075659e-002
      -6.49303719e-002 -4.85249050e-002 -9.80575308e-002 5.71732968e-003
      1.14367437e-002 -9.57486685e-003 3.35141718e-002 2.25793831e-002
      2.18646694e-002 1.34646529e-002 -3.78600089e-003 4.02085995e-003
      1.61163826e-002 1.10423602e-002 7.74845993e-003 1.94296427e-003
      -2.38275230e-002 1.68054346e-002 7.96564482e-003 7.77479587e-003
      1.71959549e-002 -3.35844979e-002 -4.99032810e-003 -8.95669684e-003
      -1.25994748e-002 -6.53996989e-002 -4.13135532e-003
      -1.91227067e-002 -2.31688786e-002 -4.75580841e-002
      -1.74298268e-002 -1.48668410e-002 -1.48782972e-002
      -3.51264365e-002 -8.25030729e-002 -2.59339586e-002
      -1.30203255e-002 -6.79302309e-003 -1.21231761e-003
      -5.56196719e-002 -1.78215071e-003 2.93344781e-002 5.41524030e-003
      -1.46084586e-002 1.75153855e-002 3.95995118e-002 2.22685784e-002
      -3.30507122e-002 8.36516172e-002 3.83712389e-002 1.90112852e-002
      8.62241816e-003 -2.06137702e-001 7.52720609e-002 2.33211499e-002
      2.70539429e-002 4.40074988e-002 -6.89559355e-002 -5.49480170e-002
      7.45906215e-003 -3.59336333e-003 -1.20522700e-001 6.44824058e-002
      7.38573074e-003 8.34178850e-002 -5.63913062e-002 -1.03849754e-001
      1.06652704e-004 1.17628397e-002 -2.67632566e-002 -1.43523701e-002
      -3.08583081e-002 -1.03272656e-002 1.10733369e-002 -8.91283676e-002
      -8.66546035e-002 -2.21588388e-002 1.61268935e-002 1.61311415e-003
      6.08776845e-002 7.19105601e-002 -2.73902267e-002 -5.20303962e-004
      -7.61436373e-002 -1.02839684e-002 5.14530204e-002 6.39194325e-002
      7.60799721e-002 -8.93566832e-002 1.20272458e-001 5.46585917e-002
      6.81021661e-002 -1.14459218e-002 -6.17321394e-002 9.02341828e-002
      1.16339669e-001 1.13442384e-001 -7.27515146e-002 1.56698748e-001
      1.26749501e-001 9.53211784e-002 -3.70341875e-002 -7.63849840e-002
      4.63226289e-002 3.50764208e-002 1.04447629e-003 6.03865646e-003
      1.65388659e-002 2.34594271e-002 2.01933328e-002 -1.44165188e-001
      -2.95802001e-002 5.49492287e-003 -1.40696997e-004 9.11017228e-003
      -1.82065703e-002 1.04828309e-002 4.08674590e-003 -4.22485545e-003
      -4.56649326e-002 -1.18731242e-002 4.07573171e-002 3.71637978e-002
      1.08812630e-001 8.01301375e-002 9.24367979e-002 3.00069731e-002
      1.29264435e-002 -4.50358056e-002 -1.60975933e-001 8.09372403e-003
      -5.90983732e-003 4.49848399e-002 -3.30429710e-002 5.28573431e-002
      1.38114486e-002 6.76724594e-003 -1.93169221e-001 -5.42939790e-002
      3.16145970e-003 -1.00153564e-002 2.73859943e-003 -4.30751964e-002
      5.44562284e-003 1.60982483e-003 9.41313617e-003 -6.54825643e-002
      1.24094170e-002 6.97813975e-003 4.41910699e-003 -2.21664988e-004
      -1.17177917e-002 6.93362579e-003 3.37965693e-003 5.19192778e-003
      1.23872962e-002 -5.49859833e-003 4.04565921e-003 -2.06771935e-003
      -7.38936802e-003 -5.27979285e-002 1.17670663e-003 -8.46538134e-003
      -7.53031159e-003 -1.45477075e-002 -1.41047752e-002
      -2.30973158e-002 -2.14744303e-002 -6.01561293e-002
      -1.39975667e-001 -4.93926182e-002 -2.35312544e-002
      -8.72874539e-003 1.96948256e-002 2.05592066e-002 -2.39862874e-003
      -4.64110839e-004 -1.86261740e-002 -5.65043800e-002
      -1.43991522e-002 -3.18307756e-003 -4.31641052e-003 1.64226983e-002
      2.78784316e-002 2.07707975e-002 1.35936467e-002 1.05411978e-002
      -7.64725953e-002 3.87601778e-002 1.92258824e-002 1.55469002e-002
      6.16675243e-003 -1.92897227e-002 1.08438439e-003 5.19476905e-002
      3.69337834e-002 -4.01768945e-002 8.79582912e-002 4.32269610e-002
      1.24516606e-001 -5.62123256e-003 -2.73703903e-001 -7.27231707e-003
      7.22081494e-003 -4.29725535e-002 4.37873378e-002 -6.46576807e-002
      -2.54088882e-002 -1.43970049e-003 -2.56870657e-001
      -6.81225136e-002 -1.42713077e-002 -2.36169472e-002
      -4.13415954e-002 -1.19537696e-001 -3.51716429e-002
      -2.37350762e-002 -2.41057966e-002 -6.91684559e-002 2.09185183e-002
      3.52208391e-002 4.09617797e-002 5.32555357e-002 -2.35045962e-002
      6.27354756e-002 3.89043353e-002 3.98814715e-002 7.33124278e-003
      -4.85157967e-002 1.04240052e-001 1.18961990e-001 9.72877219e-002
      3.86317703e-003 1.58675134e-001 1.18629962e-001 8.91084075e-002
      -4.02120836e-002 -4.25992571e-002 1.13979541e-001 8.75187218e-002
      4.58033830e-002 -1.62825044e-002 6.78652823e-002 6.45912737e-002
      6.56932965e-002 -3.84405367e-002 -3.72408442e-002 3.65089998e-002
      2.01952811e-002 2.54877172e-002 9.12738033e-003 2.79002097e-002
      1.27446661e-002 1.83794871e-002 -5.48784547e-002 4.89003200e-004
      1.90388821e-002 1.83451567e-002 5.14229499e-002 8.06049705e-002
      4.40882258e-002 1.61508843e-002 6.93516294e-003 -1.44588351e-002
      -1.48940280e-001 1.66774169e-002 -3.27750691e-003 3.63496132e-002
      -1.63616259e-002 5.49914427e-002 2.11677719e-002 2.29036082e-002
      -1.72568545e-001 -1.33846641e-001 2.35860199e-002 -2.17548455e-003
      2.69472916e-002 -3.07349619e-002 3.22114453e-002 1.69215854e-002
      3.74926180e-002 -1.54116452e-001 -7.28420541e-003 1.35751907e-002
      5.97452978e-003 1.43688088e-002 1.00445626e-002 1.72324777e-002
      9.24695283e-003 1.44887716e-002 -5.23284683e-003 1.01036788e-003
      7.72113388e-004 -1.54288206e-003 -4.69375961e-003 -2.42866091e-002
      -1.71299046e-003 -2.54696095e-003 -1.48697651e-003
      -1.20554434e-003 9.02993884e-003 -1.83981247e-002 -1.30238729e-002
      -4.21759710e-002 -9.67811868e-002 -4.31375168e-002
      -2.08446551e-002 -8.50308593e-003 4.21307385e-002 7.17748776e-002
      2.80089257e-003 3.81770683e-003 -3.40574048e-002 -1.08990513e-001
      -2.17534639e-002 1.24193472e-003 6.43645355e-004 5.88985533e-002
      5.59855327e-002 8.22168402e-003 5.31448470e-003 -3.44122038e-003
      -2.59619337e-002 -1.51358801e-003 7.22683361e-003 1.32187391e-002
      5.16497493e-002 1.83117241e-002 1.51863061e-002 3.42169404e-002
      2.74701007e-002 7.83050433e-002 3.59990597e-002 2.32952852e-002
      5.88717237e-002 6.28933171e-003 -2.47581050e-001 -6.57728035e-003
      2.67113675e-004 -1.60408746e-002 5.30704111e-002 -5.03487401e-002
      -2.47288644e-002 -1.45526836e-002 -2.26777002e-001
      -1.49245828e-001 -2.18716469e-002 -5.45755848e-002
      -7.70807043e-002 -2.06737742e-001 -5.72014488e-002
      -4.02344912e-002 -3.36931571e-002 -1.32372364e-001
      -2.45730560e-002 -7.96334259e-003 -1.42256878e-002
      -1.19615803e-002 -2.17488874e-002 -1.71389582e-003
      -5.57715027e-003 -5.40589727e-003 -4.48031090e-002
      -1.49755953e-002 4.40574922e-002 4.93314490e-002 2.84763984e-002
      1.50993271e-002 6.37133196e-002 4.49789204e-002 3.33020948e-002
      -3.47317308e-002 -4.75958809e-002 1.12524018e-001 8.98717791e-002
      8.71544331e-002 1.60566419e-001 9.73373055e-002 7.00689033e-002
      7.69037306e-002 -4.25075702e-002 -2.38755178e-002 7.73985162e-002
      4.38051037e-002 7.99423307e-002 2.65792832e-002 8.19751769e-002
      3.42246555e-002 4.02919501e-002 -2.64193676e-002 -5.73520698e-002
      1.98107511e-002 2.31734179e-002 2.55369768e-002 2.75403131e-002
      4.88052592e-002 3.21417600e-002 2.75882967e-002 -4.79527228e-002
      -5.86348027e-002 7.96212815e-003 -1.84486562e-003 1.34653104e-002
      -1.95523221e-002 2.26905197e-002 9.39004775e-003 1.31550971e-002
      -6.29319698e-002 -1.11855604e-001 2.91394144e-002 9.26662795e-003
      4.11639959e-002 2.79857162e-002 4.44874205e-002 2.22387984e-002
      4.25627381e-002 -1.30362526e-001 -7.86678642e-002 3.38152349e-002
      1.71712600e-002 3.95854488e-002 3.74725722e-002 4.74670194e-002
      2.33325716e-002 3.27543654e-002 -8.53736997e-002 8.75397213e-003
      1.54115893e-002 5.56130614e-003 7.44600722e-004 -3.12135345e-003
      1.96098983e-002 7.58968107e-003 7.94786867e-003 -1.26753328e-002
      1.10113155e-002 -8.11696425e-003 -4.62520681e-003 -1.68600678e-002
      -3.97064164e-002 -1.90021712e-002 -9.78056714e-003
      -5.59734134e-003 2.44481247e-002 8.58725160e-002 4.22838051e-003
      3.83422128e-003 -3.29837278e-002 -1.06643222e-001 -1.89477690e-002
      4.47192229e-003 6.31978596e-003 7.07891658e-002 1.26367941e-001
      1.93840154e-002 1.21798143e-002 -1.17436051e-002 -6.40757456e-002
      -4.97289561e-003 1.67769957e-002 2.94374619e-002 1.20837986e-001
      4.70498167e-002 1.22839343e-002 5.48667694e-003 -1.91234634e-003
      -7.79641420e-003 4.81541082e-003 5.52592287e-003 9.05364472e-003
      5.52415513e-002 -9.82693434e-002 -8.91326275e-003 -7.84072932e-003
      -1.19825201e-002 6.70874715e-002 -2.84264330e-002 -1.79363843e-002
      -1.90350413e-002 -8.92777890e-002 -1.18579157e-001
      -2.90556159e-002 -6.58073351e-002 -7.99454004e-002
      -2.02694893e-001 -5.49425930e-002 -4.22764346e-002
      -3.05719823e-002 -1.05897203e-001 -1.32090196e-001
      -4.25830707e-002 -3.47583741e-002 -4.76396307e-002
      -8.25239494e-002 -1.81270260e-002 -2.25908402e-002
      -3.97875160e-002 -1.46730006e-001 -2.13361830e-002
      -4.11752276e-002 -2.16698609e-002 -1.84306875e-002 8.06371588e-003
      5.04016597e-003 -9.83092934e-003 -2.31419448e-002 -1.24793649e-002
      1.27293859e-002 4.49716710e-002 3.34000401e-002 3.70741822e-002
      9.20052230e-002 3.72450873e-002 2.47589033e-002 2.99628191e-002
      -3.26596312e-002 -3.91806178e-002 6.73286617e-002 3.60449366e-002
      7.83180222e-002 3.28228064e-002 7.74154216e-002 3.27196643e-002
      3.41879316e-002 -4.40611951e-002 -2.36361921e-002 2.91566402e-002
      3.98684479e-002 1.82098076e-002 -2.61973403e-002 9.05957669e-002
      5.82378805e-002 4.40595821e-002 -2.64084525e-002 -1.25178024e-002
      6.08965661e-003 4.93567716e-003 -8.32067337e-003 -3.00950184e-002
      1.81845445e-002 -1.07195256e-002 -1.88081933e-003 -3.39104012e-002
      -1.11083714e-002 1.12063177e-002 4.15041298e-003 1.62015725e-002
      1.44536989e-002 1.68771390e-002 7.95853324e-003 1.64105091e-002
      -1.61100235e-002 -7.60125965e-002 3.02890670e-002 1.61569733e-002
      3.67639102e-002 3.21059972e-002 4.56902534e-002 2.16999277e-002
      2.61061713e-002 -9.28689241e-002 -5.81408404e-002 3.68099250e-002
      8.34904611e-003 -1.00938389e-002 -2.75603831e-002 3.88863571e-002
      1.35520175e-002 1.77463163e-002 -1.08223096e-001 -1.93039645e-002
      9.26970504e-003 5.21645229e-003 7.08213681e-003 -3.85211525e-003
      1.44280382e-002 6.19829074e-003 1.00506227e-002 -2.54057981e-002
      4.51339632e-002 3.21983057e-003 2.13707914e-003 -1.16775138e-002
      -4.05231379e-002 -5.69537049e-003 3.65815614e-003 6.67652208e-003
      3.89686972e-002 1.26961336e-001 1.66528877e-002 1.05675049e-002
      -1.72377881e-002 -6.84641451e-002 -6.78267097e-003 1.48154767e-002
      2.38644872e-002 1.23673201e-001 9.25293863e-002 2.66748499e-002
      8.53222515e-003 1.43942656e-003 -6.98958384e-003 1.27359219e-002
      9.62755643e-003 1.85479578e-002 1.21238552e-001 5.03835753e-002
      1.30962199e-002 5.26895653e-003 2.34422218e-002 4.65894192e-002
      1.78981312e-002 6.64498238e-003 1.35700228e-002 3.80362980e-002
      5.05862245e-003 -5.83703723e-003 -2.41015591e-002 -2.59500947e-002
      -7.72596374e-002 -1.37275653e-002 -1.07965507e-002
      -1.81566004e-003 1.75471907e-003 -1.08630925e-001 -4.81037311e-002
      -2.66377628e-002 -6.05775230e-002 -9.65104103e-002
      -1.88787282e-002 -2.09369678e-002 -4.42961641e-002
      -1.30020216e-001 -6.45673946e-002 -1.05809018e-001
      -7.91722536e-002 -5.99521250e-002 -8.71379972e-002 1.45496568e-003
      -2.75899507e-002 -3.83964293e-002 -4.16324213e-002
      -1.05425052e-001 -9.00780037e-002 -9.39977914e-002
      -2.65284926e-002 3.13698128e-002 8.42991937e-003 -4.18968052e-002
      -2.27958057e-002 -8.05310458e-002 -7.52066402e-003 2.82412730e-002
      1.64458137e-002 3.54828835e-002 3.83893214e-002 3.40110324e-002
      1.76741816e-002 1.60407480e-002 5.80902509e-002 -1.33382482e-002
      2.07007751e-002 2.58530937e-002 -1.63222402e-002 -4.91546877e-002
      6.73080385e-002 3.77993025e-002 3.61640044e-002 -1.37765119e-002
      -1.21910647e-002 -1.14821149e-002 -1.77085735e-002
      -3.25835459e-002 -1.87394902e-001 4.06373516e-002 -3.41744535e-002
      1.07772434e-002 -2.18914300e-002 -1.21755600e-001 -1.52809963e-001
      -1.80852115e-001 -5.63214421e-002 -2.01576039e-001
      -3.68121616e-003 -8.49511698e-002 -6.57205060e-002
      -3.18637714e-002 -1.52674308e-002 8.52856692e-003 4.71262354e-003
      1.11247879e-002 5.52994059e-003 1.51174441e-002 6.08663447e-003
      5.24311932e-003 -2.53545605e-002 -5.74600287e-002 2.68333536e-002
      -1.36472669e-003 -2.86874510e-002 -5.71452230e-002 2.45086271e-002
      3.04318545e-003 9.13165696e-003 -9.99861732e-002 -6.02523163e-002
      6.18239306e-003 7.56704621e-003 7.56197469e-003 -3.41840908e-002
      1.66036505e-002 9.22936015e-003 1.43966815e-002 -6.10886551e-002
      1.94106121e-002 1.71937223e-003 1.78692359e-002 -5.24155272e-004
      2.76569440e-003 9.73773282e-003 2.18338389e-002 8.78195162e-004
      1.48994578e-002 -4.92536537e-002 -1.00329949e-003 1.18543636e-002
      -2.69531133e-003 8.03808682e-003 1.03461631e-002 9.98329837e-003
      1.90404933e-002 -3.05387620e-002 5.17192297e-002 2.21212115e-002
      9.54629853e-003 1.46748917e-002 -6.32375032e-002 4.26008441e-002
      2.30447520e-002 2.77759526e-002 3.44561711e-002 1.40492506e-002
      2.61447951e-003 3.13145071e-002 2.72738952e-002 -6.45221397e-002
      5.82479946e-002 3.04331426e-002 6.37758151e-002 2.24338006e-002
      -1.92836728e-002 1.21430652e-002 1.38361612e-002 -4.97798156e-003
      6.59829229e-002 -8.04820657e-003 1.05178580e-004 1.09655242e-002
      -3.24915312e-002 -9.84673668e-003 -1.90098081e-002 2.45186388e-002
      1.70959830e-002 6.54861256e-002 9.15678814e-002 -2.63458397e-002
      -5.21526625e-003 7.13187444e-004 -1.41953873e-002 6.35054559e-002
      6.46564811e-002 1.01169437e-001 -6.26331046e-002 1.22299649e-001
      5.87884672e-002 6.56793416e-002 -3.39782685e-002 -1.09670073e-001
      9.17187929e-002 1.07746847e-001 1.20690681e-001 -1.49256676e-001
      1.51603535e-001 1.10266343e-001 8.37582499e-002 -9.38013420e-002
      -7.87121356e-002 4.16164733e-002 2.81536933e-002 -3.05640767e-003
      -6.15197867e-002 6.59599295e-003 1.86847486e-002 1.58120561e-002
      -1.01946950e-001 -8.33780784e-003 2.34596692e-002 -1.12406164e-002
      2.73719523e-002 -6.71814159e-002 1.45694185e-002 1.14493789e-002
      -7.99185783e-003 -2.22364832e-002 -5.53647391e-002 6.94064870e-002
      6.12317361e-002 1.60641015e-001 -3.05756386e-002 1.69341847e-001
      6.95808381e-002 3.81569229e-002 -1.03144459e-001 -1.40392184e-001
      5.28350472e-003 -2.28082463e-002 1.09662876e-001 -1.47060677e-001
      1.09958515e-001 4.09163460e-002 2.01398768e-002 -1.45818129e-001
      -1.43896759e-001 -4.03327867e-003 -4.99379523e-002
      -1.03852153e-003 -7.70625398e-002 -1.41529525e-002
      -1.34775601e-002 4.05248161e-003 -1.58367187e-001 1.72913577e-002
      1.22577790e-002 2.29180514e-004 1.45173082e-002 6.76619913e-003
      2.07240283e-002 1.17460759e-002 1.44590354e-002 1.88043807e-002
      -4.79764603e-002 2.27212105e-002 3.45979556e-002 6.91786259e-002
      9.82985273e-002 5.85777499e-002 2.89595313e-002 2.14675553e-002
      -4.91422676e-002 -7.52990022e-002 2.78167403e-003 -3.74115747e-003
      1.82615733e-003 -6.71191663e-002 4.18289863e-002 2.72486843e-002
      2.34375559e-002 -8.22183415e-002 -1.42706959e-002 -6.97189383e-003
      -2.53916923e-002 -1.75283682e-002 -7.38176554e-002 1.88727991e-003
      -7.35016726e-003 5.39664063e-004 -3.80060300e-002 2.34505963e-002
      1.28481360e-002 8.74727871e-003 1.14483479e-002 -2.30558738e-002
      2.23515220e-002 1.65272057e-002 1.44995097e-002 1.28143011e-002
      8.46693367e-002 3.23028080e-002 4.97109108e-002 3.83284055e-002
      2.99310088e-002 5.95970601e-002 4.16135937e-002 7.72912130e-002
      8.14027116e-002 -1.03554361e-001 2.89057326e-002 2.09269244e-002
      -8.29752907e-003 1.14841007e-001 -1.55884577e-002 2.70392047e-003
      1.89903025e-002 -1.10955812e-001 -2.97372732e-002 1.32810115e-003
      -6.07864372e-003 -1.34333344e-002 -4.76364307e-002
      -1.12677887e-002 -6.42213179e-003 -5.08517725e-003
      -3.34308967e-002 2.21889243e-002 4.28589806e-002 4.15894240e-002
      5.94264045e-002 -2.40593497e-003 6.43528998e-002 3.93040963e-002
      3.92136499e-002 1.44149608e-003 -9.15897638e-002 1.13317505e-001
      1.11809529e-001 9.26382020e-002 -8.37358981e-002 1.44673511e-001
      1.07163899e-001 8.93726125e-002 -8.43586996e-002 -6.72896281e-002
      1.20773420e-001 8.12833384e-002 3.27759311e-002 -4.95863967e-002
      4.62056510e-002 5.99497259e-002 6.88739568e-002 -8.39036927e-002
      -3.92435566e-002 4.42357920e-002 2.68536974e-002 2.77104639e-002
      5.68806380e-003 2.57593077e-002 1.71996392e-002 2.41483524e-002
      -5.07833250e-002 -2.19997410e-002 3.23948488e-002 3.27237621e-002
      8.92694294e-002 8.84867013e-002 8.15210566e-002 4.05664891e-002
      2.26833560e-002 -4.24117334e-002 -1.40119866e-001 3.14516239e-002
      -1.55653628e-002 8.40339586e-002 -1.45144835e-001 1.03124171e-001
      5.19509390e-002 5.36422580e-002 -1.35276064e-001 -7.28864595e-002
      3.49050499e-002 -4.70970608e-002 3.19489650e-002 -6.07076250e-002
      2.00230926e-002 8.66361614e-003 5.34671359e-002 -7.96569809e-002
      -5.72473519e-002 2.26469729e-002 6.36522565e-003 1.75345652e-002
      6.14696124e-004 2.77033206e-002 1.49037354e-002 2.52929330e-002
      -5.79056814e-002 -2.15356257e-002 1.13030188e-002 1.72613338e-002
      3.13740633e-002 5.73679321e-002 2.84357071e-002 1.70821846e-002
      1.19931772e-002 -2.12999806e-002 -5.18143363e-002 1.34159252e-002
      -3.13575030e-003 -6.54299511e-004 -8.85395780e-002 4.47898768e-002
      2.82321181e-002 3.20902839e-002 -7.05375224e-002 -2.34030392e-002
      1.62511744e-004 -2.80822720e-002 -8.65355786e-003 -8.00981224e-002
      2.90235970e-002 5.22025814e-003 3.04022040e-002 -5.88792264e-002
      1.12324078e-002 8.20150040e-003 -1.23153848e-003 -7.00733974e-004
      -2.23705620e-002 1.11766011e-002 1.03544435e-002 2.88336985e-002
      6.37281779e-003 4.75313179e-002 1.92285087e-002 2.43114140e-002
      1.70518905e-002 3.63251679e-002 2.22503021e-002 1.77221932e-002
      3.33023779e-002 4.04768698e-002 -1.15385741e-001 2.59351823e-002
      1.50195332e-002 2.72530713e-004 1.07864983e-001 -9.52300802e-003
      2.80178501e-003 1.15502952e-002 -1.20650709e-001 -6.74088672e-002
      6.98056398e-003 -1.46327494e-002 -2.10618395e-002 -8.97154510e-002
      -1.56407841e-002 -9.69991274e-003 -3.72259947e-003
      -7.57741407e-002 -2.39054970e-002 5.55126288e-004 -3.14666936e-003
      1.80031953e-003 -2.72319914e-004 4.19583172e-003 -1.35152240e-003
      -6.02838816e-004 -3.08566540e-002 -3.11301984e-002 4.45092320e-002
      4.18719016e-002 1.98585503e-002 -1.20480089e-002 5.05928583e-002
      3.87848653e-002 3.23950723e-002 -5.72942384e-002 -8.26884285e-002
      1.22929394e-001 8.73188153e-002 6.61689267e-002 6.73104897e-002
      7.45889843e-002 6.68889880e-002 8.09243396e-002 -8.04441050e-002
      -4.94269542e-002 9.70602334e-002 6.10079691e-002 8.27413052e-002
      2.44699977e-002 7.57969916e-002 4.64892015e-002 5.30462265e-002
      -5.08842617e-002 -5.85810430e-002 2.56073643e-002 2.48904526e-002
      1.99893918e-002 1.04322741e-002 4.30098623e-002 3.23987119e-002
      3.04193981e-002 -5.16294837e-002 -1.47389024e-001 1.28600579e-002
      -1.38267186e-002 1.96953043e-002 -4.50517535e-002 3.46125253e-002
      1.64528899e-002 2.30919477e-002 -1.57606646e-001 -5.03692552e-002
      4.69497442e-002 -1.06025226e-002 5.60531504e-002 -2.68489048e-002
      5.58838695e-002 2.78550442e-002 6.75792247e-002 -5.67814596e-002
      -4.14065532e-002 5.80459945e-002 2.03440432e-002 5.43528907e-002
      4.93594892e-002 8.11988190e-002 3.78892198e-002 5.32608181e-002
      -5.16279824e-002 -5.08370847e-002 2.82537341e-002 8.81500170e-003
      -8.56756512e-003 -2.92038210e-002 3.40209045e-002 1.16457259e-002
      1.22433947e-002 -9.78104100e-002 -1.50027778e-002 6.50704280e-003
      -4.78975242e-003 -4.21967916e-003 -5.69556430e-002 1.83376614e-002
      9.11775045e-003 1.27374334e-002 -2.62189135e-002 -4.66550887e-003
      1.20447380e-002 -7.44992308e-003 1.16186319e-002 -1.90384835e-002
      4.67493385e-002 2.04057749e-002 5.10129854e-002 -2.62743607e-002
      6.15189523e-002 2.88766008e-002 2.27974239e-003 7.00840866e-003
      -4.10019681e-002 3.32154259e-002 2.45547332e-002 6.33948073e-002
      4.01071012e-002 4.54403125e-002 1.54909762e-002 9.04440042e-003
      3.71509348e-003 -2.05320995e-002 1.71264019e-002 1.17660705e-002
      2.21520904e-002 2.27690209e-002 -2.89669596e-002 7.78643414e-003
      2.60212459e-003 -1.54188671e-003 3.28495912e-002 -6.53125253e-003
      -1.70903699e-003 -5.65241266e-004 -3.79841179e-002
      -6.96507618e-002 5.16386097e-003 -1.85010452e-002 -1.86630506e-002
      -8.44468027e-002 -1.30992131e-002 -1.03471885e-002
      -1.70439424e-003 -8.13274533e-002 -9.09975693e-002
      -1.02616129e-002 -8.30425136e-003 -4.29645134e-003
      -1.40615664e-002 4.68172738e-003 -8.19222722e-003 -1.42490789e-002
      -1.20849393e-001 -2.24498007e-002 -1.56072779e-002
      -7.51219131e-003 -5.09598106e-003 1.05313100e-002 6.58939919e-003
      -5.48857590e-003 -1.14737293e-002 -2.55966522e-002 1.73966179e-003
      5.20508029e-002 3.55945267e-002 3.15962583e-002 5.26890866e-002
      3.11719924e-002 2.56679896e-002 3.41675095e-002 -4.41221744e-002
      -4.70157675e-002 9.13514569e-002 5.80137782e-002 8.61489922e-002
      3.14830355e-002 7.62725025e-002 4.91628274e-002 4.86577936e-002
      -5.08830175e-002 -2.83646602e-002 4.91366498e-002 4.67702374e-002
      1.57964937e-002 -4.37406823e-002 8.66022706e-002 6.24057651e-002
      5.62839247e-002 -2.81031616e-002 -2.16560774e-002 2.09780000e-002
      1.11536523e-002 -1.28774792e-002 -7.45737329e-002 2.23421641e-002
      -4.20131860e-003 8.91170185e-003 -4.71960120e-002 -7.20669404e-002
      1.90467387e-002 3.87900393e-004 2.48234011e-002 6.70706807e-003
      2.47120112e-002 1.19693885e-002 2.82625835e-002 -8.50845575e-002
      -3.84638272e-002 5.37224635e-002 1.94902234e-002 5.15724197e-002
      4.75087762e-002 7.99223706e-002 3.58471908e-002 4.13420871e-002
      -5.21741770e-002 -8.14853981e-002 6.43262714e-002 1.24075208e-002
      -3.55236828e-002 -3.72537002e-002 7.39865080e-002 2.02686023e-002
      2.77316514e-002 -8.23663473e-002 -8.39896798e-002 8.11231323e-003
      -3.75056174e-004 3.16068297e-003 -2.75833402e-002 2.49258596e-002
      3.72144021e-003 9.58564226e-003 -1.08785734e-001 3.32414312e-003
      5.19082975e-003 1.83896918e-005 7.87072256e-003 4.75078775e-003
      2.09164117e-002 1.06804324e-002 2.50034332e-002 -5.00318408e-003
      9.20480713e-002 2.75027100e-002 7.06562365e-004 3.39529826e-003
      -5.04389219e-002 2.68840659e-002 1.97868124e-002 5.65362461e-002
      5.84374368e-002 9.07970667e-002 3.36249769e-002 2.15510223e-002
      1.19930403e-002 -3.98707986e-002 4.23962362e-002 2.67988965e-002
      5.08269407e-002 8.53940919e-002 2.64386069e-002 5.97487995e-003
      8.18349514e-003 2.01780293e-002 9.74930730e-003 2.02970207e-002
      6.98612584e-003 9.34245624e-003 7.89080281e-003 -7.59155583e-003
      3.30465590e-003 -7.04790279e-003 -3.52322776e-003 -2.29025185e-002
      -1.34268834e-003 -2.53527099e-003 2.18021334e-003 -1.04734497e-002
      -6.58830777e-002 -1.64088570e-002 -8.29444546e-003
      -1.39092263e-002 -2.73274612e-002 1.75683422e-003 -1.09944846e-002
      -1.94744430e-002 -9.44657251e-002 -4.51236106e-002
      -4.38889377e-002 -3.28930616e-002 -1.79944579e-002 1.11021474e-003
      7.52350688e-003 -1.64809134e-002 -2.08154377e-002 -4.28940244e-002
      -1.02311321e-001 -6.02024049e-002 -6.50665164e-002
      -1.91356447e-002 -8.37277155e-003 2.31320824e-004 -3.16433609e-002
      -2.09680498e-002 -8.75371695e-002 -1.17935948e-002 3.36503871e-002
      2.30913945e-002 3.76664773e-002 3.37948240e-002 3.33392546e-002
      2.18683220e-002 1.81785617e-002 5.68123907e-002 -2.74307318e-002
      3.62674519e-002 2.74773501e-002 -2.35259384e-002 -4.13122289e-002
      6.60010576e-002 3.90987843e-002 4.37753238e-002 -2.00559627e-002
      -1.95216909e-002 1.56767182e-002 -1.77775673e-003 -2.75933966e-002
      -1.56990930e-001 5.04611395e-002 -1.91590302e-002 2.95159090e-002
      -3.58598083e-002 -1.12015866e-001 -1.34796754e-001
      -1.62495032e-001 -4.92642745e-002 -1.62705839e-001 5.09237056e-004
      -7.70714730e-002 -6.70783520e-002 -1.80420466e-002
      -6.10936247e-002 1.72233693e-002 6.45190990e-003 1.75220352e-002
      8.63123965e-003 3.06943953e-002 1.14689888e-002 1.08085629e-002
      -8.21362659e-002 -1.14798918e-001 4.74298894e-002 -3.96924699e-003
      -4.22590449e-002 -3.09239104e-002 5.65287173e-002 4.63571167e-003
      1.64028332e-002 -1.16450533e-001 -6.11510314e-002 1.73432473e-003
      5.29408175e-003 -3.02997157e-002 -1.52000085e-001 3.51226032e-002
      1.14804991e-002 1.19936084e-002 -8.48234519e-002 -5.91304488e-002
      5.26496954e-003 4.69616689e-002 1.97780207e-002 -3.58007587e-002
      2.09470596e-002 4.80716787e-002 -9.98385344e-003 -7.72265717e-002
      4.96420115e-002 1.02114994e-002 4.51169559e-004 1.12646690e-003
      -1.95488948e-002 1.04638105e-002 6.49093417e-003 1.90915093e-002
      2.85110343e-002 9.96901393e-002 2.66959406e-002 1.74312536e-002
      1.08705396e-002 -3.00734378e-002 3.95414568e-002 2.13777628e-002
      4.32031043e-002 1.01105772e-001 9.96877775e-002 1.06801270e-002
      1.71440449e-002 4.56122831e-002 3.90957594e-002 3.44443135e-002
      1.71200633e-002 1.51778450e-002 7.12236464e-002 6.68280497e-002
      1.14253322e-002 1.32922214e-002 9.25400574e-003 -2.61502061e-002
      2.96415441e-004 2.34757531e-002 6.34958735e-003 2.93227732e-002
      2.58624051e-002 5.98449446e-003 3.52243818e-002 2.34577805e-002
      8.36317018e-002 6.08346947e-002 4.36347350e-003 2.55259941e-003
      1.21047432e-002 -5.63757773e-003 3.71422507e-002 3.65558490e-002
      5.79599477e-002 2.47170720e-002 6.44440055e-002 3.09300534e-002
      2.66741384e-002 -2.84858104e-002 -8.90391693e-002 5.00444621e-002
      5.27126007e-002 8.13493580e-002 -2.87412126e-002 7.44997412e-002
      4.79478762e-002 4.09998447e-002 -1.16786875e-001 -2.91183661e-003
      2.19007600e-002 1.03587899e-002 -2.91831139e-003 -2.52744257e-002
      -2.10137898e-003 8.86311475e-003 1.17449630e-002 -4.26467098e-002
      -1.76441185e-002 7.81307220e-002 3.22242230e-002 5.26405759e-002
      3.08277830e-002 2.56637614e-002 5.77864461e-002 2.49605179e-002
      -4.36501810e-003 -4.76841964e-002 8.01470876e-002 7.88545236e-002
      1.84941664e-001 -1.76545754e-002 1.75427228e-001 8.76283720e-002
      5.73814698e-002 -8.12300146e-002 -7.55985305e-002 3.23334038e-002
      -2.74637045e-004 1.76318690e-001 -6.90777078e-002 1.45252794e-001
      7.76874125e-002 5.61692566e-002 -8.04093182e-002 -9.48657095e-002
      -6.73240516e-003 -8.03533420e-002 -1.99556537e-003
      -1.05876677e-001 -3.65140326e-002 -2.51474660e-002 1.37883399e-004
      -1.00386068e-001 6.39798120e-002 3.94159220e-002 2.43270099e-002
      5.37284166e-002 4.97720167e-002 7.11009204e-002 3.86400968e-002
      4.56033088e-002 6.87491745e-002 -5.18633984e-002 6.68038130e-002
      7.51395524e-002 1.35078594e-001 -4.73314477e-003 1.18573762e-001
      6.30076453e-002 4.73046266e-002 -4.54807989e-002 -5.58998808e-002
      -2.94208876e-003 -2.29491498e-002 -3.43297832e-002
      -1.24287918e-001 4.96882908e-002 4.54338044e-002 4.18817662e-002
      -5.95005751e-002 -5.03825285e-002 -5.34028634e-002
      -8.43094960e-002 -7.99885616e-002 -1.78648189e-001
      -2.48426218e-002 -4.05907370e-002 -3.40413600e-002
      -6.83108568e-002 2.99823266e-002 1.51231783e-002 1.33305378e-002
      1.96686145e-002 3.39129157e-002 2.17487961e-002 2.21274793e-002
      1.91105399e-002 3.09399404e-002 4.90079597e-002 3.33343856e-002
      1.64306331e-002 3.11530083e-002 4.29121405e-002 2.19887439e-002
      2.86057554e-002 2.77143624e-002 5.06150126e-002 2.66541876e-002
      2.48785354e-002 1.53488498e-002 8.67918786e-003 3.45477974e-003
      1.97330280e-003 1.83712374e-002 2.34764647e-002 3.09666041e-002
      -1.39052863e-003 9.83589562e-004 -1.07811159e-003 -5.48437191e-003
      -1.33585744e-002 -1.21280202e-003 -8.89761257e-004
      -1.18825736e-003 -2.65364256e-002 1.94573440e-002 2.44991947e-002
      2.43163966e-002 3.91413979e-002 2.68040095e-002 3.67530920e-002
      1.99945588e-002 1.81557499e-002 4.99541918e-003 -5.68919778e-002
      8.11978504e-002 6.95778057e-002 7.36917108e-002 -1.64163131e-002
      7.65470639e-002 6.22548647e-002 6.91866055e-002 -7.59457126e-002
      -1.09797381e-002 8.52340534e-002 4.96605933e-002 2.76740976e-002
      3.17359646e-003 2.34711897e-002 4.24669385e-002 6.47874624e-002
      -6.15130663e-002 3.86735201e-002 3.53130661e-002 2.13609543e-002
      1.72743015e-002 4.54817945e-003 1.37620009e-002 1.52911097e-002
      2.46046819e-002 6.22303858e-002 -1.54088708e-002 4.26684022e-002
      4.94269766e-002 1.06822655e-001 1.29039019e-001 9.37653780e-002
      5.63233458e-002 3.77247520e-002 -3.17971557e-002 -5.24302758e-002
      8.27210993e-002 2.67261639e-002 1.53009072e-001 -8.86027813e-002
      1.49845570e-001 9.81432945e-002 1.08347341e-001 -3.63138616e-002
      5.19777201e-002 4.76062559e-002 -6.10027388e-002 4.26979437e-002
      -8.78655016e-002 8.94802622e-003 9.73080657e-003 6.77069202e-002
      7.67469108e-002 -2.75698472e-002 2.07522400e-002 2.58895708e-003
      3.62585299e-003 -2.26310957e-002 1.92256849e-002 1.43417269e-002
      2.94836406e-002 -3.44801210e-002 -2.58705057e-002 3.65770720e-002
      4.24143225e-002 6.68550804e-002 1.12911947e-001 6.18685968e-002
      3.87396477e-002 2.66759228e-002 -2.84740478e-002 5.77209704e-003
      2.43584029e-002 -1.28195183e-002 -3.61105874e-002 -1.52457520e-001
      5.70788644e-002 4.59408574e-002 6.42467961e-002 -2.48569418e-002
      -2.54717208e-002 -3.99827510e-002 -8.42178389e-002
      -6.29473925e-002 -9.80926082e-002 2.47256272e-002 -5.55979600e-003
      3.23974080e-002 -2.88133621e-002 -4.73922724e-003 1.12547390e-002
      -1.03011839e-002 -1.67373903e-002 -7.46517330e-002 4.36831079e-003
      2.08411124e-002 6.42732829e-002 -2.56088991e-002 2.58380547e-002
      1.55875012e-002 9.02721565e-003 1.57771166e-002 2.72673983e-002
      1.17831556e-002 1.23191839e-002 1.27670979e-002 2.19145976e-002
      6.27436712e-002 3.01607233e-002 1.92526821e-002 9.03659128e-003
      -4.29686159e-004 5.40137850e-003 2.11921427e-002 3.20593119e-002
      6.29763380e-002 1.17178168e-002 1.30220260e-002 6.45466242e-003
      -3.51894950e-003 -1.57419480e-002 4.85626096e-003 7.61750992e-003
      9.83501226e-003 -2.42744219e-002 -1.51493987e-002 8.40426981e-003
      4.16828087e-003 2.98658793e-004 -5.94933517e-003 2.27822503e-003
      5.67279058e-003 5.98641904e-003 -2.89788712e-002 4.26824354e-002
      4.01508212e-002 3.02709527e-002 1.87586695e-002 -2.69670710e-002
      2.67110001e-002 2.77277939e-002 3.49301696e-002 2.54829917e-002
      1.25719374e-002 1.00652866e-001 5.99004477e-002 3.77724022e-002
      1.85362678e-002 3.46350856e-002 5.01719154e-002 8.00840333e-002
      -2.40125209e-002 -2.26276517e-002 9.43046436e-002 5.68355359e-002
      5.32783717e-002 2.95230262e-002 4.21390720e-002 4.48564030e-002
      6.75306395e-002 -2.84826979e-002 6.18833862e-002 3.04357894e-002
      1.90908425e-002 7.34936493e-003 -1.00207678e-003 1.92519464e-002
      2.03073360e-002 3.15421447e-002 7.31202886e-002 -9.83501300e-002
      3.50112617e-002 -2.16350309e-003 3.48996595e-002 -2.80047636e-002
      4.50666919e-002 3.23072411e-002 4.59604040e-002 -1.15292676e-001
      8.60069022e-002 5.74149191e-002 -2.21978202e-002 3.62545177e-002
      -7.87017792e-002 3.32145691e-002 2.78487969e-002 8.31980333e-002
      1.05123691e-001 6.76867366e-002 5.33293188e-002 6.98891981e-003
      1.66912880e-002 1.21862656e-002 5.76563254e-002 3.45519632e-002
      6.08757921e-002 6.79505318e-002 -6.32341206e-002 3.04029789e-002
      8.55383836e-003 -2.15201695e-002 -5.03832847e-002 2.73397733e-002
      1.20427245e-002 1.67864710e-002 -1.03871413e-001 -1.82268638e-002
      6.56060548e-003 -1.98504478e-002 -3.95753644e-002 -1.23958819e-001
      1.26483263e-002 5.82827581e-003 2.00375393e-002 -5.61284758e-002
      -3.79373021e-002 -1.70125999e-002 -4.63752709e-002
      -3.15307342e-002 -1.30557999e-001 5.30316234e-002 2.55732555e-002
      8.37682709e-002 -3.94853316e-002 -2.93244664e-002 4.20116857e-002
      -1.85884573e-002 -2.99903452e-002 -1.59794211e-001 1.57987531e-002
      4.40828875e-002 1.32556468e-001 -3.72491926e-002 7.95311406e-002
      2.79706549e-002 1.38577931e-002 -2.35475902e-003 -6.18098304e-002
      2.33097840e-002 2.37238090e-002 5.21596037e-002 2.08999552e-002
      2.96338536e-002 1.03591392e-002 6.47232030e-003 2.87336588e-004
      -8.88296869e-003 1.70867097e-005 6.67906739e-003 1.19456965e-002
      2.37367935e-002 -2.77617201e-003 1.23914396e-002 8.04211758e-003
      -2.68225931e-003 -1.20246671e-002 5.84261538e-003 8.50479677e-003
      8.35903827e-003 -3.82464714e-002 -4.39992957e-002 2.09135879e-002
      1.03588058e-002 -5.13007690e-004 -1.48061458e-002 4.84773377e-003
      1.44311115e-002 1.73909217e-002 -7.69563839e-002 -1.38190174e-002
      1.02541549e-002 6.32504467e-003 1.76429166e-003 -2.41370220e-003
      4.06878721e-003 5.75788179e-003 1.05087282e-002 -3.54496762e-002
      8.64029601e-002 4.47006263e-002 2.60202680e-002 1.69311166e-002
      1.04208523e-002 1.46500254e-002 2.03507207e-002 3.46044786e-002
      6.23197742e-002 -8.91809538e-003 9.76311490e-002 5.80426455e-002
      5.73212989e-002 3.42192240e-002 4.43131514e-002 4.78205383e-002
      6.97189718e-002 -1.84079893e-002 3.81101249e-003 7.41742030e-002
      4.10304703e-002 -5.79410989e-004 -3.38770412e-002 4.01079282e-002
      4.39118259e-002 7.59342089e-002 -6.46821316e-003 7.67141357e-002
      3.46291885e-002 1.49905905e-002 -1.38779581e-002 -5.27408868e-002
      1.29351104e-002 9.48869623e-003 2.89509241e-002 6.68153986e-002
      -3.65348905e-002 2.01314688e-002 -5.73723530e-003 1.01435259e-002
      -1.71649996e-002 1.19144749e-002 1.02856867e-002 3.32748108e-002
      -4.15648669e-002 7.44326711e-002 4.56977375e-002 1.60210743e-003
      6.93765795e-003 5.89343486e-003 5.19863702e-002 2.83397157e-002
      4.38158549e-002 6.48382828e-002 1.79738365e-002 6.46455884e-002
      6.36366149e-003 -7.61331245e-002 -7.25938007e-002 5.47285415e-002
      1.72640923e-002 3.63776423e-002 2.60943342e-002 -6.69450760e-002
      3.71391024e-003 -1.17022581e-002 -2.24105585e-002 -5.75133599e-002
      8.99281073e-003 -3.68326087e-003 6.70437794e-003 -9.89624783e-002
      -6.15379252e-002 -1.18369060e-002 -1.63368303e-002
      -8.82329140e-003 -2.71735322e-002 2.37892065e-002 1.47507982e-002
      4.20035757e-002 -9.90012661e-002 -8.76047090e-003 3.14089432e-002
      -3.02190036e-002 -4.65483181e-002 -1.93137109e-001
      -7.21861795e-003 2.86614597e-002 1.12875804e-001 -2.01785713e-002
      -3.61894779e-002 5.72750121e-002 3.15611921e-002 -4.97488398e-003
      -1.01028867e-001 5.88801987e-002 5.17421216e-002 1.19117238e-001
      -2.70205922e-002 2.79208571e-002 6.43459754e-003 1.15788076e-002
      1.61395688e-002 -1.56580992e-002 2.92570125e-002 1.11950627e-002
      1.64813902e-002 -1.57563426e-002 -1.29621401e-002 3.71082360e-003
      2.96897115e-003 -1.07876968e-003 -3.33959516e-003 2.17535254e-003
      2.87491572e-003 7.36486807e-004 -3.02148275e-002 -5.91382384e-002
      1.86333023e-002 8.27873964e-003 -3.73147964e-003 -1.91249996e-002
      2.13917065e-003 1.28775798e-002 1.61405429e-002 -1.00079961e-001
      -8.01032037e-002 2.14362983e-002 1.50868278e-002 5.75149944e-003
      3.28239682e-003 1.34388972e-002 1.23057403e-002 2.22723801e-002
      -1.15597025e-001 -5.27721457e-002 4.84781526e-003 6.09260565e-003
      9.91149340e-003 2.05614623e-002 1.11433314e-002 5.23222424e-003
      5.43127069e-003 -5.90928979e-002 -1.75753713e-003 1.69862658e-002
      1.17754582e-002 1.50779029e-002 8.97314772e-003 1.18059339e-002
      9.94090363e-003 8.74679722e-003 2.53456905e-002 1.93910804e-002
      2.52945274e-002 1.08524347e-002 -2.57567167e-002 -6.44521788e-002
      2.04728823e-002 1.56438351e-002 2.55412329e-002 -1.41255418e-002
      2.31794664e-003 2.11028382e-002 6.40183967e-003 -1.79923289e-002
      -9.98048857e-002 2.05513798e-002 -6.48253888e-004 2.61346884e-002
      -5.61559200e-003 -2.97439210e-002 -4.25180718e-002
      -5.02859056e-002 -1.54354749e-002 -3.75556536e-002 5.03076054e-003
      -2.41566002e-002 -2.37529073e-002 -1.13404747e-002
      -6.97263777e-002 7.01399567e-003 -3.60535225e-003 1.00254931e-003
      -1.07181901e-002 1.93004459e-002 4.54323553e-003 3.70525685e-003
      -8.52281451e-002 -8.76589268e-002 2.21409723e-002 -2.05081031e-002
      -6.85622320e-002 -5.75994141e-002 3.38080190e-002 -7.91458972e-003
      2.85466504e-003 -8.29070359e-002 -8.22523087e-002 -2.26536747e-002
      -2.16378476e-002 -4.88776863e-002 -1.31909400e-001 4.16430971e-003
      -1.03733856e-002 -1.33532006e-002 -1.11457787e-001
      -1.03253558e-001 5.65794902e-003 4.82476205e-002 3.93317007e-002
      -1.26277581e-001 1.96831711e-002 4.08425368e-002 -2.12931056e-002
      -1.25234410e-001 6.37211055e-002 8.34200252e-003 -1.14418752e-002
      -1.50376540e-002 -7.29371384e-002 7.92369246e-004 5.39912283e-003
      3.18528414e-002 -5.49323950e-003 -4.60772961e-003 3.32932360e-002
      1.63536631e-002 -5.74638427e-004 -5.67502081e-002 5.60221933e-002
      3.06400117e-002 8.68601501e-002 -7.11304648e-003 -5.01823425e-002
      8.43232847e-004 2.00785138e-002 1.07468180e-002 -7.25087896e-002
      4.38944809e-002 2.09561344e-002 1.42744165e-002 -4.78520989e-002
      1.79545745e-001 4.85070571e-002 4.57060151e-002 3.32479328e-002
      -1.54538512e-001 2.72948276e-002 6.48191795e-002 3.35650817e-002
      1.71605453e-001 -2.15788502e-002 4.45656851e-003 7.63106276e-004
      -3.70527618e-003 -1.14358217e-002 -8.03592440e-004 2.65593221e-003
      4.88700671e-003 -3.61396000e-002 -8.47621262e-002 1.33339707e-002
      9.50157363e-003 4.11398942e-003 5.07032359e-003 1.27949128e-002
      6.42018672e-003 1.49029596e-002 -1.10325158e-001 -9.44002345e-002
      6.14363188e-003 1.40379835e-002 2.18229070e-002 6.23900928e-002
      2.00931318e-002 1.48044638e-002 7.71144731e-003 -1.15226015e-001
      1.00696087e-001 3.05329282e-002 2.83691641e-002 1.61748473e-002
      7.11867660e-002 3.23382132e-002 3.73500101e-002 2.43512839e-002
      9.13480520e-002 1.93836298e-002 8.57511908e-002 5.37862256e-002
      4.05133702e-002 -6.40440956e-002 1.58639178e-002 6.30889460e-002
      3.97067629e-002 -6.49044104e-003 -3.98380123e-002 5.28959706e-002
      5.73146157e-002 1.17397167e-001 1.05320349e-001 9.29154381e-002
      6.16422556e-002 4.12315950e-002 -5.37843294e-002 -1.13635086e-001
      3.41822207e-002 1.70154572e-002 1.46863267e-001 -1.52041078e-001
      1.15060128e-001 6.96412474e-002 4.99141552e-002 -1.44753844e-001
      -1.89136469e-003 -1.22885536e-002 -7.05482587e-002 2.18244200e-003
      -1.07429802e-001 -3.59798782e-002 -2.58060694e-002
      -9.29108728e-003 4.09267889e-003 9.15638506e-002 5.79064786e-002
      5.44517487e-002 7.75214434e-002 1.01090193e-001 1.04983635e-001
      5.32721989e-002 6.64937720e-002 1.02818511e-001 -2.57332623e-002
      1.07312843e-001 9.00002271e-002 1.27293646e-001 1.39969178e-002
      1.19384930e-001 7.86992833e-002 5.41926399e-002 -2.30902750e-002
      7.84136504e-002 -2.16681175e-002 -5.42687066e-002 4.90132580e-003
      -9.92850289e-002 -6.55195024e-003 3.45570669e-002 2.34121401e-002
      3.38167585e-002 -1.12992942e-001 -1.22096092e-001 -1.42119333e-001
      -1.51653960e-001 -1.67380437e-001 -7.30844289e-002
      -8.76967534e-002 -1.04070053e-001 -1.16950095e-001 6.62121996e-002
      3.73407826e-002 3.78987826e-002 5.45092113e-002 8.10297653e-002
      6.54425994e-002 5.26460223e-002 4.72942181e-002 7.03151003e-002
      9.09442902e-002 6.56408221e-002 3.47288921e-002 4.48989943e-002
      2.47472655e-002 3.34508792e-002 4.88697626e-002 5.46564758e-002
      9.15750787e-002 -1.14363074e-005 5.01213036e-002 4.33740430e-002
      1.79176461e-002 1.48209399e-002 -2.18616636e-003 3.05380356e-002
      3.01173963e-002 1.00293038e-002 -1.75055973e-002 -9.95035004e-003
      -9.40358546e-003 -1.90671999e-002 -2.72546317e-002
      -7.49000302e-003 -7.55272573e-003 -1.56692546e-002
      -7.03535378e-002 1.18837198e-002 7.40407454e-003 7.52610574e-003
      8.23818706e-003 1.48784854e-002 1.32667711e-002 8.26559681e-003
      5.72397187e-003 1.44302631e-002 2.38528289e-002 -1.68540829e-003
      -2.16500717e-003 -1.39756233e-003 -2.23205462e-002
      -1.03063099e-002 -6.84113149e-003 -3.53610795e-003 1.71489827e-002
      2.58118026e-002 -7.11765559e-003 -1.04723088e-002 -2.02737888e-003
      -7.37098232e-003 -3.27879889e-003 2.51164893e-003 2.34438572e-003
      2.24737041e-002 1.89418811e-002 -3.89423617e-003 -5.14463289e-003
      -5.54027874e-003 -1.25096971e-002 -1.57655438e-003
      -1.07170641e-003 -3.08242138e-003 2.22251806e-002 -4.42400621e-003
      3.32940221e-002 4.18393575e-002 7.28284717e-002 9.89281088e-002
      6.10980950e-002 4.62330990e-002 3.13685983e-002 -1.03302458e-002
      -5.82694970e-002 8.09960067e-002 4.86980453e-002 1.41600534e-001
      7.99298957e-002 1.22605167e-001 8.89891684e-002 9.57064033e-002
      -7.80282095e-002 8.38759542e-002 2.57624947e-002 -4.69962731e-002
      3.45896669e-002 -1.05043456e-001 -4.52931417e-004 2.05853023e-003
      3.76788117e-002 1.06458746e-001 5.39013650e-003 1.46643235e-003
      -7.42816599e-003 -1.41020548e-002 -3.85426171e-002
      -2.93940771e-004 3.64148105e-003 1.27611263e-002 6.12442940e-003
      1.97155890e-003 6.64499030e-002 6.35910928e-002 7.81618059e-002
      1.53256267e-001 7.46824145e-002 5.58396466e-002 3.61108929e-002
      -4.32066293e-003 9.15388614e-002 2.71102041e-002 -2.45500151e-002
      -5.29820919e-002 -5.29726073e-002 8.18493869e-003 3.79735418e-002
      7.96635896e-002 3.57340239e-002 -6.90607280e-002 -9.03664604e-002
      -1.22468695e-001 -1.15277953e-001 -1.32928222e-001
      -1.63672157e-002 -2.71979943e-002 6.51593087e-003 -6.90439641e-002
      -4.27952930e-002 1.62638025e-003 -2.39424743e-002 -4.00611460e-002
      -1.01410173e-001 -1.97078250e-002 1.93788353e-002 7.25210756e-002
      -9.60566849e-002 7.23050535e-002 3.52247246e-002 2.38014422e-002
      3.29489708e-002 6.75231591e-002 2.49759723e-002 3.04975789e-002
      3.24636698e-002 6.76859841e-002 8.39143619e-002 7.71357566e-002
      6.52357414e-002 2.99244579e-002 4.90104146e-002 1.70191545e-002
      5.60205951e-002 7.19469339e-002 8.57608169e-002 -3.43137346e-002
      2.47113295e-002 1.70241129e-002 -1.21878749e-002 -1.05855484e-002
      7.26059871e-003 1.76706593e-002 1.10431155e-002 -7.51482025e-002
      -2.29989346e-002 1.57403443e-002 9.81560908e-003 -5.89900650e-003
      -1.34338168e-002 -2.66684830e-004 1.14054596e-002 7.73938978e-003
      -5.08086644e-002 1.41842319e-002 1.63076736e-003 4.97542089e-004
      1.84792664e-003 1.51417125e-003 -1.02888781e-003 6.21685118e-004
      2.25631567e-003 1.06268963e-002 4.38346751e-002 4.05672425e-003
      -1.07684522e-003 5.98004786e-004 1.83550199e-003 1.29788567e-003
      1.13145877e-002 1.20820794e-002 4.17329669e-002 5.65494299e-002
      2.83380505e-003 -2.40415428e-003 -7.73073640e-003 -1.81780066e-002
      -5.11441787e-004 3.50208208e-003 4.47506830e-003 6.33206591e-002
      1.86821204e-002 7.27002043e-004 -8.00502661e-004 -5.01601351e-003
      -1.16913514e-002 -2.01393873e-003 -7.80615606e-004 1.09124032e-003
      2.12320834e-002 -5.06957900e-003 4.88977022e-002 2.14634798e-002
      5.91062196e-002 2.45478842e-002 5.01438491e-002 3.88925634e-002
      5.47972396e-002 -2.12473031e-002 7.98200443e-002 4.73433509e-002
      -1.44121293e-002 1.98700670e-002 2.95106526e-002 1.32411905e-002
      2.08875239e-002 6.67758733e-002 1.02606170e-001 1.02050632e-001
      1.98986121e-002 -1.19403414e-002 -2.56961659e-002 -3.78120467e-002
      1.11771701e-002 1.53629147e-002 3.93562913e-002 1.16585702e-001
      -1.22085884e-002 1.78081077e-002 3.06056323e-003 -2.56778989e-002
      -4.68938537e-002 9.34393238e-003 6.72782725e-003 1.28546217e-002
      -2.67932974e-002 6.01190478e-002 1.30758006e-002 -2.45917756e-002
      -5.07910512e-002 -1.18991882e-001 -7.13443337e-003 2.60137836e-003
      3.69290225e-002 1.27632953e-002 -2.20632758e-002 -3.59842367e-002
      -6.91708103e-002 -7.59999678e-002 -1.29826978e-001 1.84651706e-002
      2.77723204e-002 8.85799378e-002 -1.34725049e-002 -1.58810541e-002
      3.23469788e-002 -4.10246924e-002 -8.62643123e-002 -1.75528094e-001
      -4.02359180e-002 5.34899496e-002 1.58554286e-001 -2.38152463e-002
      1.42734617e-001 2.84758043e-002 1.23159615e-002 -2.23983023e-002
      -7.91606009e-002 8.07157904e-003 2.98854522e-002 7.21066818e-002
      -1.98551696e-002 9.66978073e-002 3.21572572e-002 2.86111552e-002
      8.04073736e-003 1.70487966e-002 5.27214026e-003 2.43743714e-002
      3.16388831e-002 8.56670812e-002 -2.16881614e-002 3.16680335e-002
      2.90688258e-002 -9.46369022e-003 1.30370799e-002 1.07859941e-002
      2.68284921e-002 1.32837016e-002 -5.13184592e-002 -8.11658129e-002
      5.16129285e-002 3.56874578e-002 -1.75912287e-002 -1.39971292e-002
      -1.33645930e-003 4.49685007e-002 4.21436019e-002 -9.32271108e-002
      2.47178390e-003 2.71903407e-002 2.13214774e-002 -2.78304855e-004
      -6.25649991e-004 6.86242478e-003 1.99153572e-002 2.96076834e-002
      -3.93597148e-002 1.86502002e-002 1.84502720e-003 5.73954661e-004
      -6.74772076e-004 3.96897405e-004 6.22410793e-004 5.32385660e-003
      4.69991565e-003 1.87618602e-002 5.34611009e-002 4.20554075e-003
      -5.16282802e-004 -7.58498721e-003 -1.76012758e-002
      -3.74055700e-004 4.28482099e-003 5.88624412e-003 6.13985993e-002
      4.45981994e-002 3.35178268e-003 9.07474081e-004 -1.24540823e-002
      -2.50241328e-002 -3.62852914e-003 6.35235105e-004 4.16458817e-003
      5.05424701e-002 2.24276222e-002 3.38435126e-003 1.10808469e-003
      -4.17158240e-003 -9.88504197e-003 -1.48512394e-004 1.43617694e-003
      3.39577068e-003 2.36810539e-002 6.72591254e-002 1.88458934e-002
      -1.97449466e-003 -1.87507004e-003 -4.15057922e-003 3.09706503e-003
      9.62058734e-003 3.04751508e-002 6.89452365e-002 5.33242971e-002
      2.57321689e-002 -9.01247561e-003 -3.04907206e-002 -3.40159684e-002
      1.06351348e-002 1.64200123e-002 3.63533720e-002 6.41278848e-002
      -1.43374931e-002 4.79010753e-002 3.90377617e-003 -7.95416310e-002
      -1.27432317e-001 1.66130792e-002 1.44187575e-002 3.69781218e-002
      -1.17628053e-002 1.10717500e-002 -1.78167757e-004 -1.28140394e-002
      -2.87586097e-002 -3.89473289e-002 -6.92577101e-003
      -6.27232529e-003 2.65275198e-003 -6.55252393e-003 -4.47685607e-002
      -1.18449777e-002 -2.02290434e-002 -2.60934643e-002
      -1.67795755e-002 1.14968065e-002 2.30134688e-002 4.83566113e-002
      -2.84232479e-002 2.29318049e-002 3.30577157e-002 -3.84219550e-002
      -9.69945788e-002 -1.99230209e-001 -5.58671057e-002 5.37867360e-002
      1.42849132e-001 2.06906963e-002 2.43019164e-002 6.21131808e-002
      3.62754613e-002 -5.35400957e-002 -9.99640971e-002 2.80089881e-002
      7.37437680e-002 1.68519601e-001 2.18222998e-002 4.70277630e-002
      -2.52541649e-004 1.04162917e-002 -9.43955220e-003 -2.29687653e-002
      1.23248138e-002 8.38817935e-003 9.33200587e-003 -7.99433514e-003
      1.58332977e-002 1.18299285e-002 1.32838339e-002 -4.42586932e-003
      1.15277860e-002 3.97919677e-003 1.15718525e-002 1.70525280e-003
      -1.35491835e-002 -6.99481890e-002 5.61415479e-002 3.98241393e-002
      -2.54606009e-002 -2.24198302e-004 -6.51683938e-003 5.63350730e-002
      5.61090931e-002 -8.69828835e-002 -5.92886619e-002 6.34985715e-002
      5.94148785e-002 4.95344354e-003 4.95051406e-002 3.18217017e-002
      5.18819205e-002 6.98099658e-002 -1.01788655e-001 -3.08279339e-002
      2.11836137e-002 2.43045241e-002 2.98817698e-002 6.98500127e-002
      3.49323228e-002 2.26262361e-002 2.30975579e-002 -4.15904820e-002
      1.91196762e-002 1.36848423e-003 -4.46154183e-004 -3.55413114e-003
      -8.23355932e-003 -5.81019500e-004 1.28673029e-003 2.24231463e-003
      2.21018009e-002 4.14081402e-002 2.58880737e-003 9.26790817e-004
      -1.42567493e-002 -2.61322316e-002 -4.06864006e-003 1.05094525e-003
      4.10467573e-003 4.63476703e-002 5.27598821e-002 7.27287214e-003
      4.72522480e-003 -7.14028999e-003 -1.34957442e-002 5.15987305e-003
      6.12263754e-003 8.71568546e-003 5.65142594e-002 3.22289318e-002
      6.83717290e-003 6.83056004e-003 1.48928501e-002 2.87836436e-002
      1.50897997e-002 5.84969390e-003 9.98686627e-003 3.69179510e-002
      -3.22073139e-002 -8.67197011e-003 -1.29037602e-002
      -1.28760310e-002 -2.42832545e-002 3.76225507e-004 -5.64631307e-003
      -7.30789825e-003 -3.56792994e-002 -1.23989284e-001
      -2.10066233e-002 -3.37168388e-002 -7.23613799e-002
      -1.04130484e-001 -4.92830528e-003 -2.27822997e-002
      -2.00315602e-002 -1.38027549e-001 -9.59768146e-002
      -4.34847400e-002 -3.98384705e-002 -4.42057773e-002
      -8.23998973e-002 -3.02302726e-002 -3.15996334e-002
      -3.39104794e-002 -1.15951531e-001 -7.53575340e-002
      -7.87106529e-003 7.33371777e-003 -1.98407040e-004 -7.99494013e-002
      -1.08192302e-002 3.11886822e-003 -2.22490896e-002 -8.70416537e-002
      8.15951545e-003 -1.08639775e-002 -2.96316445e-002 -3.67128775e-002
      -1.00572109e-001 -1.98778585e-002 -7.85536785e-003 1.63716841e-002
      -6.64305165e-002 -1.10648163e-001 -9.32470057e-003
      -2.25581750e-002 -4.20699604e-002 -9.89597812e-002 1.78359821e-002
      -5.37527318e-004 6.30955026e-002 -9.47839618e-002 -1.40691236e-001
      -4.49178517e-002 -1.44925397e-002 -6.37775883e-002
      -1.38896108e-001 -1.98200508e-003 -1.37350904e-002
      -2.70403158e-002 -1.33751273e-001 1.11091636e-001 3.97829227e-002
      2.73704845e-002 -7.92151596e-003 -6.87867627e-002 2.98004434e-003
      5.40549792e-002 2.83176079e-002 1.07093126e-001 -2.82398295e-002
      7.52600096e-003 -8.38042120e-004 -1.31708719e-002 -3.15251723e-002
      -4.45654755e-003 3.56352492e-003 8.66462104e-003 -5.06886654e-002
      -1.04081862e-001 2.38685720e-002 1.69607252e-002 1.28428731e-003
      6.36145612e-003 2.95811240e-002 1.19274734e-002 2.93585826e-002
      -1.16802290e-001 -1.35787845e-001 1.37495799e-002 3.36670950e-002
      5.54582402e-002 5.39004542e-002 5.06938361e-002 3.58539447e-002
      1.89285707e-002 -1.49397582e-001 1.48803726e-001 7.96937272e-002
      5.56245446e-002 3.84602472e-002 9.73232277e-003 7.64781088e-002
      7.68910199e-002 5.03318906e-002 1.26853958e-001 5.96683053e-003
      -1.10767363e-003 -1.30992010e-003 -4.94345790e-003
      -1.04663810e-002 -9.50587390e-004 -1.08702225e-003
      -5.61034482e-004 7.53483223e-003 1.70795340e-002 -2.97957449e-004
      -2.01136898e-003 -4.17541852e-003 -8.14441498e-003 6.01927238e-003
      -2.70460703e-004 1.84568285e-003 2.19754577e-002 3.19656134e-002
      4.76682000e-003 8.17133114e-003 3.43506895e-002 5.62845469e-002
      2.09421292e-002 5.00899879e-003 8.20619613e-003 4.06417772e-002
      7.83656910e-002 3.38316336e-002 7.60200247e-003 2.58751959e-002
      -1.96624501e-003 2.69008148e-002 5.00103598e-003 4.66600526e-003
      7.35120326e-002</_></support_vectors>
  <decision_functions>
    <_>
      <sv_count>1</sv_count>
      <rho>-2.3433797344062892e+000</rho>
      <alpha>
        1.</alpha>
      <index>
        0</index></_></decision_functions></my_svm>
</opencv_storage>
